digraph Tree {
node [shape=box] ;
0 [label="X[100] <= -0.206\ngini = 0.5\nsamples = 4800\nvalue = [2465, 2335]"] ;
1 [label="X[59] <= 0.967\ngini = 0.346\nsamples = 2057\nvalue = [457, 1600]"] ;
0 -> 1 [labeldistance=2.5, labelangle=45, headlabel="True"] ;
2 [label="X[17] <= -1.24\ngini = 0.215\nsamples = 1620\nvalue = [198, 1422]"] ;
1 -> 2 ;
3 [label="X[97] <= -0.317\ngini = 0.157\nsamples = 1491\nvalue = [128, 1363]"] ;
2 -> 3 ;
4 [label="X[129] <= -0.094\ngini = 0.493\nsamples = 120\nvalue = [53, 67]"] ;
3 -> 4 ;
5 [label="X[100] <= -0.259\ngini = 0.455\nsamples = 77\nvalue = [50, 27]"] ;
4 -> 5 ;
6 [label="X[1] <= 0.899\ngini = 0.298\nsamples = 11\nvalue = [2, 9]"] ;
5 -> 6 ;
7 [label="gini = 0.0\nsamples = 9\nvalue = [0, 9]"] ;
6 -> 7 ;
8 [label="gini = 0.0\nsamples = 2\nvalue = [2, 0]"] ;
6 -> 8 ;
9 [label="X[127] <= -0.153\ngini = 0.397\nsamples = 66\nvalue = [48, 18]"] ;
5 -> 9 ;
10 [label="X[3] <= -0.067\ngini = 0.083\nsamples = 23\nvalue = [22, 1]"] ;
9 -> 10 ;
11 [label="gini = 0.0\nsamples = 1\nvalue = [0, 1]"] ;
10 -> 11 ;
12 [label="gini = 0.0\nsamples = 22\nvalue = [22, 0]"] ;
10 -> 12 ;
13 [label="X[115] <= -0.98\ngini = 0.478\nsamples = 43\nvalue = [26, 17]"] ;
9 -> 13 ;
14 [label="gini = 0.133\nsamples = 14\nvalue = [13, 1]"] ;
13 -> 14 ;
15 [label="gini = 0.495\nsamples = 29\nvalue = [13, 16]"] ;
13 -> 15 ;
16 [label="X[37] <= 1.681\ngini = 0.13\nsamples = 43\nvalue = [3, 40]"] ;
4 -> 16 ;
17 [label="gini = 0.0\nsamples = 39\nvalue = [0, 39]"] ;
16 -> 17 ;
18 [label="X[123] <= -0.144\ngini = 0.375\nsamples = 4\nvalue = [3, 1]"] ;
16 -> 18 ;
19 [label="gini = 0.0\nsamples = 3\nvalue = [3, 0]"] ;
18 -> 19 ;
20 [label="gini = 0.0\nsamples = 1\nvalue = [0, 1]"] ;
18 -> 20 ;
21 [label="X[104] <= 0.195\ngini = 0.103\nsamples = 1371\nvalue = [75, 1296]"] ;
3 -> 21 ;
22 [label="X[107] <= 0.009\ngini = 0.353\nsamples = 153\nvalue = [35, 118]"] ;
21 -> 22 ;
23 [label="X[98] <= -0.567\ngini = 0.489\nsamples = 68\nvalue = [29, 39]"] ;
22 -> 23 ;
24 [label="X[91] <= 1.549\ngini = 0.185\nsamples = 29\nvalue = [3, 26]"] ;
23 -> 24 ;
25 [label="gini = 0.074\nsamples = 26\nvalue = [1, 25]"] ;
24 -> 25 ;
26 [label="gini = 0.444\nsamples = 3\nvalue = [2, 1]"] ;
24 -> 26 ;
27 [label="X[108] <= 0.778\ngini = 0.444\nsamples = 39\nvalue = [26, 13]"] ;
23 -> 27 ;
28 [label="gini = 0.238\nsamples = 29\nvalue = [25, 4]"] ;
27 -> 28 ;
29 [label="gini = 0.18\nsamples = 10\nvalue = [1, 9]"] ;
27 -> 29 ;
30 [label="X[17] <= -1.266\ngini = 0.131\nsamples = 85\nvalue = [6, 79]"] ;
22 -> 30 ;
31 [label="X[17] <= -1.273\ngini = 0.026\nsamples = 75\nvalue = [1, 74]"] ;
30 -> 31 ;
32 [label="gini = 0.0\nsamples = 70\nvalue = [0, 70]"] ;
31 -> 32 ;
33 [label="gini = 0.32\nsamples = 5\nvalue = [1, 4]"] ;
31 -> 33 ;
34 [label="X[107] <= 0.104\ngini = 0.5\nsamples = 10\nvalue = [5, 5]"] ;
30 -> 34 ;
35 [label="gini = 0.278\nsamples = 6\nvalue = [5, 1]"] ;
34 -> 35 ;
36 [label="gini = 0.0\nsamples = 4\nvalue = [0, 4]"] ;
34 -> 36 ;
37 [label="X[133] <= -0.194\ngini = 0.064\nsamples = 1218\nvalue = [40, 1178]"] ;
21 -> 37 ;
38 [label="X[97] <= -0.188\ngini = 0.049\nsamples = 1161\nvalue = [29, 1132]"] ;
37 -> 38 ;
39 [label="X[3] <= 0.911\ngini = 0.168\nsamples = 195\nvalue = [18, 177]"] ;
38 -> 39 ;
40 [label="gini = 0.074\nsamples = 182\nvalue = [7, 175]"] ;
39 -> 40 ;
41 [label="gini = 0.26\nsamples = 13\nvalue = [11, 2]"] ;
39 -> 41 ;
42 [label="X[28] <= 0.862\ngini = 0.023\nsamples = 966\nvalue = [11, 955]"] ;
38 -> 42 ;
43 [label="gini = 0.5\nsamples = 2\nvalue = [1, 1]"] ;
42 -> 43 ;
44 [label="gini = 0.021\nsamples = 964\nvalue = [10, 954]"] ;
42 -> 44 ;
45 [label="X[109] <= 0.009\ngini = 0.311\nsamples = 57\nvalue = [11, 46]"] ;
37 -> 45 ;
46 [label="X[19] <= -1.257\ngini = 0.458\nsamples = 31\nvalue = [11, 20]"] ;
45 -> 46 ;
47 [label="gini = 0.255\nsamples = 20\nvalue = [3, 17]"] ;
46 -> 47 ;
48 [label="gini = 0.397\nsamples = 11\nvalue = [8, 3]"] ;
46 -> 48 ;
49 [label="gini = 0.0\nsamples = 26\nvalue = [0, 26]"] ;
45 -> 49 ;
50 [label="X[108] <= 0.818\ngini = 0.496\nsamples = 129\nvalue = [70, 59]"] ;
2 -> 50 ;
51 [label="X[120] <= -0.861\ngini = 0.412\nsamples = 86\nvalue = [61, 25]"] ;
50 -> 51 ;
52 [label="X[10] <= -1.878\ngini = 0.105\nsamples = 18\nvalue = [1, 17]"] ;
51 -> 52 ;
53 [label="gini = 0.0\nsamples = 1\nvalue = [1, 0]"] ;
52 -> 53 ;
54 [label="gini = 0.0\nsamples = 17\nvalue = [0, 17]"] ;
52 -> 54 ;
55 [label="X[107] <= 0.094\ngini = 0.208\nsamples = 68\nvalue = [60, 8]"] ;
51 -> 55 ;
56 [label="X[98] <= -0.559\ngini = 0.1\nsamples = 57\nvalue = [54, 3]"] ;
55 -> 56 ;
57 [label="X[110] <= 0.457\ngini = 0.444\nsamples = 6\nvalue = [4, 2]"] ;
56 -> 57 ;
58 [label="gini = 0.0\nsamples = 4\nvalue = [4, 0]"] ;
57 -> 58 ;
59 [label="gini = 0.0\nsamples = 2\nvalue = [0, 2]"] ;
57 -> 59 ;
60 [label="X[49] <= 2.038\ngini = 0.038\nsamples = 51\nvalue = [50, 1]"] ;
56 -> 60 ;
61 [label="gini = 0.5\nsamples = 2\nvalue = [1, 1]"] ;
60 -> 61 ;
62 [label="gini = 0.0\nsamples = 49\nvalue = [49, 0]"] ;
60 -> 62 ;
63 [label="X[99] <= -0.082\ngini = 0.496\nsamples = 11\nvalue = [6, 5]"] ;
55 -> 63 ;
64 [label="gini = 0.0\nsamples = 6\nvalue = [6, 0]"] ;
63 -> 64 ;
65 [label="gini = 0.0\nsamples = 5\nvalue = [0, 5]"] ;
63 -> 65 ;
66 [label="X[129] <= -0.1\ngini = 0.331\nsamples = 43\nvalue = [9, 34]"] ;
50 -> 66 ;
67 [label="X[128] <= 0.794\ngini = 0.408\nsamples = 7\nvalue = [5, 2]"] ;
66 -> 67 ;
68 [label="gini = 0.0\nsamples = 5\nvalue = [5, 0]"] ;
67 -> 68 ;
69 [label="gini = 0.0\nsamples = 2\nvalue = [0, 2]"] ;
67 -> 69 ;
70 [label="X[87] <= 1.865\ngini = 0.198\nsamples = 36\nvalue = [4, 32]"] ;
66 -> 70 ;
71 [label="X[100] <= -0.255\ngini = 0.114\nsamples = 33\nvalue = [2, 31]"] ;
70 -> 71 ;
72 [label="gini = 0.0\nsamples = 1\nvalue = [1, 0]"] ;
71 -> 72 ;
73 [label="X[115] <= -0.612\ngini = 0.061\nsamples = 32\nvalue = [1, 31]"] ;
71 -> 73 ;
74 [label="gini = 0.5\nsamples = 2\nvalue = [1, 1]"] ;
73 -> 74 ;
75 [label="gini = 0.0\nsamples = 30\nvalue = [0, 30]"] ;
73 -> 75 ;
76 [label="X[63] <= 0.343\ngini = 0.444\nsamples = 3\nvalue = [2, 1]"] ;
70 -> 76 ;
77 [label="gini = 0.0\nsamples = 1\nvalue = [0, 1]"] ;
76 -> 77 ;
78 [label="gini = 0.0\nsamples = 2\nvalue = [2, 0]"] ;
76 -> 78 ;
79 [label="X[120] <= -0.72\ngini = 0.483\nsamples = 437\nvalue = [259, 178]"] ;
1 -> 79 ;
80 [label="X[125] <= -0.148\ngini = 0.487\nsamples = 196\nvalue = [82, 114]"] ;
79 -> 80 ;
81 [label="X[109] <= -0.122\ngini = 0.414\nsamples = 65\nvalue = [46, 19]"] ;
80 -> 81 ;
82 [label="X[77] <= 1.35\ngini = 0.193\nsamples = 37\nvalue = [33, 4]"] ;
81 -> 82 ;
83 [label="gini = 0.0\nsamples = 2\nvalue = [0, 2]"] ;
82 -> 83 ;
84 [label="X[2] <= -1.793\ngini = 0.108\nsamples = 35\nvalue = [33, 2]"] ;
82 -> 84 ;
85 [label="X[57] <= 1.326\ngini = 0.057\nsamples = 34\nvalue = [33, 1]"] ;
84 -> 85 ;
86 [label="gini = 0.0\nsamples = 31\nvalue = [31, 0]"] ;
85 -> 86 ;
87 [label="gini = 0.444\nsamples = 3\nvalue = [2, 1]"] ;
85 -> 87 ;
88 [label="gini = 0.0\nsamples = 1\nvalue = [0, 1]"] ;
84 -> 88 ;
89 [label="X[131] <= -0.13\ngini = 0.497\nsamples = 28\nvalue = [13, 15]"] ;
81 -> 89 ;
90 [label="X[17] <= -1.286\ngini = 0.388\nsamples = 19\nvalue = [5, 14]"] ;
89 -> 90 ;
91 [label="X[23] <= -0.399\ngini = 0.133\nsamples = 14\nvalue = [1, 13]"] ;
90 -> 91 ;
92 [label="gini = 0.0\nsamples = 13\nvalue = [0, 13]"] ;
91 -> 92 ;
93 [label="gini = 0.0\nsamples = 1\nvalue = [1, 0]"] ;
91 -> 93 ;
94 [label="X[17] <= -1.22\ngini = 0.32\nsamples = 5\nvalue = [4, 1]"] ;
90 -> 94 ;
95 [label="gini = 0.0\nsamples = 4\nvalue = [4, 0]"] ;
94 -> 95 ;
96 [label="gini = 0.0\nsamples = 1\nvalue = [0, 1]"] ;
94 -> 96 ;
97 [label="X[82] <= -1.062\ngini = 0.198\nsamples = 9\nvalue = [8, 1]"] ;
89 -> 97 ;
98 [label="gini = 0.0\nsamples = 8\nvalue = [8, 0]"] ;
97 -> 98 ;
99 [label="gini = 0.0\nsamples = 1\nvalue = [0, 1]"] ;
97 -> 99 ;
100 [label="X[106] <= 0.451\ngini = 0.399\nsamples = 131\nvalue = [36, 95]"] ;
80 -> 100 ;
101 [label="X[2] <= -2.669\ngini = 0.486\nsamples = 36\nvalue = [21, 15]"] ;
100 -> 101 ;
102 [label="X[85] <= 1.671\ngini = 0.278\nsamples = 12\nvalue = [2, 10]"] ;
101 -> 102 ;
103 [label="gini = 0.0\nsamples = 10\nvalue = [0, 10]"] ;
102 -> 103 ;
104 [label="gini = 0.0\nsamples = 2\nvalue = [2, 0]"] ;
102 -> 104 ;
105 [label="X[63] <= 0.534\ngini = 0.33\nsamples = 24\nvalue = [19, 5]"] ;
101 -> 105 ;
106 [label="X[120] <= -0.843\ngini = 0.105\nsamples = 18\nvalue = [17, 1]"] ;
105 -> 106 ;
107 [label="gini = 0.0\nsamples = 1\nvalue = [0, 1]"] ;
106 -> 107 ;
108 [label="gini = 0.0\nsamples = 17\nvalue = [17, 0]"] ;
106 -> 108 ;
109 [label="X[79] <= 1.72\ngini = 0.444\nsamples = 6\nvalue = [2, 4]"] ;
105 -> 109 ;
110 [label="gini = 0.0\nsamples = 4\nvalue = [0, 4]"] ;
109 -> 110 ;
111 [label="gini = 0.0\nsamples = 2\nvalue = [2, 0]"] ;
109 -> 111 ;
112 [label="X[15] <= -1.113\ngini = 0.266\nsamples = 95\nvalue = [15, 80]"] ;
100 -> 112 ;
113 [label="X[121] <= -0.159\ngini = 0.227\nsamples = 92\nvalue = [12, 80]"] ;
112 -> 113 ;
114 [label="X[77] <= 1.553\ngini = 0.476\nsamples = 23\nvalue = [9, 14]"] ;
113 -> 114 ;
115 [label="gini = 0.388\nsamples = 19\nvalue = [5, 14]"] ;
114 -> 115 ;
116 [label="gini = 0.0\nsamples = 4\nvalue = [4, 0]"] ;
114 -> 116 ;
117 [label="X[57] <= 1.345\ngini = 0.083\nsamples = 69\nvalue = [3, 66]"] ;
113 -> 117 ;
118 [label="gini = 0.0\nsamples = 61\nvalue = [0, 61]"] ;
117 -> 118 ;
119 [label="gini = 0.469\nsamples = 8\nvalue = [3, 5]"] ;
117 -> 119 ;
120 [label="gini = 0.0\nsamples = 3\nvalue = [3, 0]"] ;
112 -> 120 ;
121 [label="X[128] <= 0.832\ngini = 0.39\nsamples = 241\nvalue = [177, 64]"] ;
79 -> 121 ;
122 [label="X[129] <= 0.111\ngini = 0.31\nsamples = 209\nvalue = [169, 40]"] ;
121 -> 122 ;
123 [label="X[97] <= 0.043\ngini = 0.284\nsamples = 204\nvalue = [169, 35]"] ;
122 -> 123 ;
124 [label="X[15] <= -1.646\ngini = 0.262\nsamples = 200\nvalue = [169, 31]"] ;
123 -> 124 ;
125 [label="X[99] <= -0.198\ngini = 0.375\nsamples = 4\nvalue = [1, 3]"] ;
124 -> 125 ;
126 [label="gini = 0.0\nsamples = 1\nvalue = [1, 0]"] ;
125 -> 126 ;
127 [label="gini = 0.0\nsamples = 3\nvalue = [0, 3]"] ;
125 -> 127 ;
128 [label="X[53] <= 1.469\ngini = 0.245\nsamples = 196\nvalue = [168, 28]"] ;
124 -> 128 ;
129 [label="gini = 0.0\nsamples = 2\nvalue = [0, 2]"] ;
128 -> 129 ;
130 [label="gini = 0.232\nsamples = 194\nvalue = [168, 26]"] ;
128 -> 130 ;
131 [label="gini = 0.0\nsamples = 4\nvalue = [0, 4]"] ;
123 -> 131 ;
132 [label="gini = 0.0\nsamples = 5\nvalue = [0, 5]"] ;
122 -> 132 ;
133 [label="X[40] <= -1.029\ngini = 0.375\nsamples = 32\nvalue = [8, 24]"] ;
121 -> 133 ;
134 [label="gini = 0.0\nsamples = 3\nvalue = [3, 0]"] ;
133 -> 134 ;
135 [label="X[72] <= -0.896\ngini = 0.285\nsamples = 29\nvalue = [5, 24]"] ;
133 -> 135 ;
136 [label="X[61] <= 0.651\ngini = 0.142\nsamples = 26\nvalue = [2, 24]"] ;
135 -> 136 ;
137 [label="gini = 0.0\nsamples = 1\nvalue = [1, 0]"] ;
136 -> 137 ;
138 [label="X[105] <= 0.08\ngini = 0.077\nsamples = 25\nvalue = [1, 24]"] ;
136 -> 138 ;
139 [label="gini = 0.0\nsamples = 23\nvalue = [0, 23]"] ;
138 -> 139 ;
140 [label="gini = 0.5\nsamples = 2\nvalue = [1, 1]"] ;
138 -> 140 ;
141 [label="gini = 0.0\nsamples = 3\nvalue = [3, 0]"] ;
135 -> 141 ;
142 [label="X[106] <= 0.554\ngini = 0.392\nsamples = 2743\nvalue = [2008, 735]"] ;
0 -> 142 [labeldistance=2.5, labelangle=-45, headlabel="False"] ;
143 [label="X[98] <= -0.574\ngini = 0.307\nsamples = 2253\nvalue = [1826, 427]"] ;
142 -> 143 ;
144 [label="X[121] <= -0.059\ngini = 0.432\nsamples = 127\nvalue = [40, 87]"] ;
143 -> 144 ;
145 [label="X[10] <= -1.773\ngini = 0.5\nsamples = 69\nvalue = [34, 35]"] ;
144 -> 145 ;
146 [label="X[120] <= -0.93\ngini = 0.434\nsamples = 44\nvalue = [30, 14]"] ;
145 -> 146 ;
147 [label="X[49] <= 1.909\ngini = 0.486\nsamples = 24\nvalue = [10, 14]"] ;
146 -> 147 ;
148 [label="gini = 0.0\nsamples = 6\nvalue = [6, 0]"] ;
147 -> 148 ;
149 [label="X[90] <= 0.891\ngini = 0.346\nsamples = 18\nvalue = [4, 14]"] ;
147 -> 149 ;
150 [label="gini = 0.124\nsamples = 15\nvalue = [1, 14]"] ;
149 -> 150 ;
151 [label="gini = 0.0\nsamples = 3\nvalue = [3, 0]"] ;
149 -> 151 ;
152 [label="gini = 0.0\nsamples = 20\nvalue = [20, 0]"] ;
146 -> 152 ;
153 [label="X[98] <= -0.576\ngini = 0.269\nsamples = 25\nvalue = [4, 21]"] ;
145 -> 153 ;
154 [label="X[104] <= 0.139\ngini = 0.095\nsamples = 20\nvalue = [1, 19]"] ;
153 -> 154 ;
155 [label="gini = 0.0\nsamples = 1\nvalue = [1, 0]"] ;
154 -> 155 ;
156 [label="gini = 0.0\nsamples = 19\nvalue = [0, 19]"] ;
154 -> 156 ;
157 [label="X[29] <= 0.838\ngini = 0.48\nsamples = 5\nvalue = [3, 2]"] ;
153 -> 157 ;
158 [label="gini = 0.0\nsamples = 3\nvalue = [3, 0]"] ;
157 -> 158 ;
159 [label="gini = 0.0\nsamples = 2\nvalue = [0, 2]"] ;
157 -> 159 ;
160 [label="X[131] <= -0.149\ngini = 0.185\nsamples = 58\nvalue = [6, 52]"] ;
144 -> 160 ;
161 [label="X[65] <= 0.424\ngini = 0.105\nsamples = 54\nvalue = [3, 51]"] ;
160 -> 161 ;
162 [label="gini = 0.0\nsamples = 49\nvalue = [0, 49]"] ;
161 -> 162 ;
163 [label="X[29] <= 0.37\ngini = 0.48\nsamples = 5\nvalue = [3, 2]"] ;
161 -> 163 ;
164 [label="gini = 0.0\nsamples = 2\nvalue = [0, 2]"] ;
163 -> 164 ;
165 [label="gini = 0.0\nsamples = 3\nvalue = [3, 0]"] ;
163 -> 165 ;
166 [label="X[44] <= 0.728\ngini = 0.375\nsamples = 4\nvalue = [3, 1]"] ;
160 -> 166 ;
167 [label="gini = 0.0\nsamples = 3\nvalue = [3, 0]"] ;
166 -> 167 ;
168 [label="gini = 0.0\nsamples = 1\nvalue = [0, 1]"] ;
166 -> 168 ;
169 [label="X[97] <= -0.086\ngini = 0.269\nsamples = 2126\nvalue = [1786, 340]"] ;
143 -> 169 ;
170 [label="X[15] <= -1.24\ngini = 0.157\nsamples = 1307\nvalue = [1195, 112]"] ;
169 -> 170 ;
171 [label="X[97] <= -0.206\ngini = 0.235\nsamples = 639\nvalue = [552, 87]"] ;
170 -> 171 ;
172 [label="X[61] <= 0.564\ngini = 0.114\nsamples = 428\nvalue = [402, 26]"] ;
171 -> 172 ;
173 [label="X[34] <= -2.054\ngini = 0.492\nsamples = 16\nvalue = [7, 9]"] ;
172 -> 173 ;
174 [label="gini = 0.0\nsamples = 7\nvalue = [0, 7]"] ;
173 -> 174 ;
175 [label="gini = 0.346\nsamples = 9\nvalue = [7, 2]"] ;
173 -> 175 ;
176 [label="X[132] <= 0.292\ngini = 0.079\nsamples = 412\nvalue = [395, 17]"] ;
172 -> 176 ;
177 [label="gini = 0.075\nsamples = 411\nvalue = [395, 16]"] ;
176 -> 177 ;
178 [label="gini = 0.0\nsamples = 1\nvalue = [0, 1]"] ;
176 -> 178 ;
179 [label="X[59] <= 0.982\ngini = 0.411\nsamples = 211\nvalue = [150, 61]"] ;
171 -> 179 ;
180 [label="X[100] <= -0.18\ngini = 0.497\nsamples = 80\nvalue = [37, 43]"] ;
179 -> 180 ;
181 [label="gini = 0.448\nsamples = 59\nvalue = [20, 39]"] ;
180 -> 181 ;
182 [label="gini = 0.308\nsamples = 21\nvalue = [17, 4]"] ;
180 -> 182 ;
183 [label="X[128] <= 0.72\ngini = 0.237\nsamples = 131\nvalue = [113, 18]"] ;
179 -> 183 ;
184 [label="gini = 0.137\nsamples = 108\nvalue = [100, 8]"] ;
183 -> 184 ;
185 [label="gini = 0.491\nsamples = 23\nvalue = [13, 10]"] ;
183 -> 185 ;
186 [label="X[36] <= -2.639\ngini = 0.072\nsamples = 668\nvalue = [643, 25]"] ;
170 -> 186 ;
187 [label="gini = 0.0\nsamples = 1\nvalue = [0, 1]"] ;
186 -> 187 ;
188 [label="X[106] <= 0.508\ngini = 0.069\nsamples = 667\nvalue = [643, 24]"] ;
186 -> 188 ;
189 [label="X[67] <= 0.232\ngini = 0.031\nsamples = 513\nvalue = [505, 8]"] ;
188 -> 189 ;
190 [label="gini = 0.266\nsamples = 19\nvalue = [16, 3]"] ;
189 -> 190 ;
191 [label="gini = 0.02\nsamples = 494\nvalue = [489, 5]"] ;
189 -> 191 ;
192 [label="X[6] <= -1.627\ngini = 0.186\nsamples = 154\nvalue = [138, 16]"] ;
188 -> 192 ;
193 [label="gini = 0.494\nsamples = 9\nvalue = [5, 4]"] ;
192 -> 193 ;
194 [label="gini = 0.152\nsamples = 145\nvalue = [133, 12]"] ;
192 -> 194 ;
195 [label="X[15] <= -1.167\ngini = 0.402\nsamples = 819\nvalue = [591, 228]"] ;
169 -> 195 ;
196 [label="X[65] <= 0.401\ngini = 0.497\nsamples = 208\nvalue = [96, 112]"] ;
195 -> 196 ;
197 [label="X[129] <= -0.065\ngini = 0.344\nsamples = 104\nvalue = [23, 81]"] ;
196 -> 197 ;
198 [label="X[135] <= -0.197\ngini = 0.486\nsamples = 48\nvalue = [20, 28]"] ;
197 -> 198 ;
199 [label="gini = 0.293\nsamples = 28\nvalue = [5, 23]"] ;
198 -> 199 ;
200 [label="gini = 0.375\nsamples = 20\nvalue = [15, 5]"] ;
198 -> 200 ;
201 [label="X[64] <= -0.359\ngini = 0.101\nsamples = 56\nvalue = [3, 53]"] ;
197 -> 201 ;
202 [label="gini = 0.0\nsamples = 1\nvalue = [1, 0]"] ;
201 -> 202 ;
203 [label="gini = 0.07\nsamples = 55\nvalue = [2, 53]"] ;
201 -> 203 ;
204 [label="X[129] <= -0.036\ngini = 0.418\nsamples = 104\nvalue = [73, 31]"] ;
196 -> 204 ;
205 [label="X[97] <= 0.05\ngini = 0.269\nsamples = 75\nvalue = [63, 12]"] ;
204 -> 205 ;
206 [label="gini = 0.18\nsamples = 70\nvalue = [63, 7]"] ;
205 -> 206 ;
207 [label="gini = 0.0\nsamples = 5\nvalue = [0, 5]"] ;
205 -> 207 ;
208 [label="X[25] <= -0.179\ngini = 0.452\nsamples = 29\nvalue = [10, 19]"] ;
204 -> 208 ;
209 [label="gini = 0.0\nsamples = 13\nvalue = [0, 13]"] ;
208 -> 209 ;
210 [label="gini = 0.469\nsamples = 16\nvalue = [10, 6]"] ;
208 -> 210 ;
211 [label="X[97] <= 0.013\ngini = 0.308\nsamples = 611\nvalue = [495, 116]"] ;
195 -> 211 ;
212 [label="X[37] <= 2.016\ngini = 0.169\nsamples = 321\nvalue = [291, 30]"] ;
211 -> 212 ;
213 [label="X[123] <= -0.101\ngini = 0.375\nsamples = 8\nvalue = [2, 6]"] ;
212 -> 213 ;
214 [label="gini = 0.0\nsamples = 6\nvalue = [0, 6]"] ;
213 -> 214 ;
215 [label="gini = 0.0\nsamples = 2\nvalue = [2, 0]"] ;
213 -> 215 ;
216 [label="X[109] <= -0.025\ngini = 0.142\nsamples = 313\nvalue = [289, 24]"] ;
212 -> 216 ;
217 [label="gini = 0.052\nsamples = 225\nvalue = [219, 6]"] ;
216 -> 217 ;
218 [label="gini = 0.325\nsamples = 88\nvalue = [70, 18]"] ;
216 -> 218 ;
219 [label="X[15] <= -0.924\ngini = 0.417\nsamples = 290\nvalue = [204, 86]"] ;
211 -> 219 ;
220 [label="X[97] <= 0.174\ngini = 0.487\nsamples = 188\nvalue = [109, 79]"] ;
219 -> 220 ;
221 [label="gini = 0.456\nsamples = 165\nvalue = [107, 58]"] ;
220 -> 221 ;
222 [label="gini = 0.159\nsamples = 23\nvalue = [2, 21]"] ;
220 -> 222 ;
223 [label="X[17] <= -1.129\ngini = 0.128\nsamples = 102\nvalue = [95, 7]"] ;
219 -> 223 ;
224 [label="gini = 0.494\nsamples = 9\nvalue = [5, 4]"] ;
223 -> 224 ;
225 [label="gini = 0.062\nsamples = 93\nvalue = [90, 3]"] ;
223 -> 225 ;
226 [label="X[97] <= -0.153\ngini = 0.467\nsamples = 490\nvalue = [182, 308]"] ;
142 -> 226 ;
227 [label="X[107] <= 0.079\ngini = 0.473\nsamples = 203\nvalue = [125, 78]"] ;
226 -> 227 ;
228 [label="X[128] <= 0.997\ngini = 0.405\nsamples = 163\nvalue = [117, 46]"] ;
227 -> 228 ;
229 [label="X[120] <= -0.659\ngini = 0.322\nsamples = 139\nvalue = [111, 28]"] ;
228 -> 229 ;
230 [label="X[109] <= -0.43\ngini = 0.18\nsamples = 10\nvalue = [1, 9]"] ;
229 -> 230 ;
231 [label="gini = 0.0\nsamples = 1\nvalue = [1, 0]"] ;
230 -> 231 ;
232 [label="gini = 0.0\nsamples = 9\nvalue = [0, 9]"] ;
230 -> 232 ;
233 [label="X[125] <= -0.111\ngini = 0.251\nsamples = 129\nvalue = [110, 19]"] ;
229 -> 233 ;
234 [label="X[28] <= 3.399\ngini = 0.185\nsamples = 116\nvalue = [104, 12]"] ;
233 -> 234 ;
235 [label="gini = 0.16\nsamples = 114\nvalue = [104, 10]"] ;
234 -> 235 ;
236 [label="gini = 0.0\nsamples = 2\nvalue = [0, 2]"] ;
234 -> 236 ;
237 [label="X[125] <= -0.089\ngini = 0.497\nsamples = 13\nvalue = [6, 7]"] ;
233 -> 237 ;
238 [label="gini = 0.346\nsamples = 9\nvalue = [2, 7]"] ;
237 -> 238 ;
239 [label="gini = 0.0\nsamples = 4\nvalue = [4, 0]"] ;
237 -> 239 ;
240 [label="X[45] <= 1.857\ngini = 0.375\nsamples = 24\nvalue = [6, 18]"] ;
228 -> 240 ;
241 [label="X[46] <= 1.125\ngini = 0.278\nsamples = 6\nvalue = [5, 1]"] ;
240 -> 241 ;
242 [label="gini = 0.0\nsamples = 5\nvalue = [5, 0]"] ;
241 -> 242 ;
243 [label="gini = 0.0\nsamples = 1\nvalue = [0, 1]"] ;
241 -> 243 ;
244 [label="X[67] <= 0.383\ngini = 0.105\nsamples = 18\nvalue = [1, 17]"] ;
240 -> 244 ;
245 [label="gini = 0.0\nsamples = 17\nvalue = [0, 17]"] ;
244 -> 245 ;
246 [label="gini = 0.0\nsamples = 1\nvalue = [1, 0]"] ;
244 -> 246 ;
247 [label="X[122] <= -0.082\ngini = 0.32\nsamples = 40\nvalue = [8, 32]"] ;
227 -> 247 ;
248 [label="X[110] <= 0.676\ngini = 0.157\nsamples = 35\nvalue = [3, 32]"] ;
247 -> 248 ;
249 [label="gini = 0.0\nsamples = 2\nvalue = [2, 0]"] ;
248 -> 249 ;
250 [label="X[125] <= -0.086\ngini = 0.059\nsamples = 33\nvalue = [1, 32]"] ;
248 -> 250 ;
251 [label="gini = 0.0\nsamples = 30\nvalue = [0, 30]"] ;
250 -> 251 ;
252 [label="X[118] <= -0.349\ngini = 0.444\nsamples = 3\nvalue = [1, 2]"] ;
250 -> 252 ;
253 [label="gini = 0.0\nsamples = 2\nvalue = [0, 2]"] ;
252 -> 253 ;
254 [label="gini = 0.0\nsamples = 1\nvalue = [1, 0]"] ;
252 -> 254 ;
255 [label="gini = 0.0\nsamples = 5\nvalue = [5, 0]"] ;
247 -> 255 ;
256 [label="X[6] <= -0.903\ngini = 0.318\nsamples = 287\nvalue = [57, 230]"] ;
226 -> 256 ;
257 [label="X[19] <= -0.992\ngini = 0.23\nsamples = 241\nvalue = [32, 209]"] ;
256 -> 257 ;
258 [label="X[100] <= -0.178\ngini = 0.208\nsamples = 237\nvalue = [28, 209]"] ;
257 -> 258 ;
259 [label="X[43] <= 2.045\ngini = 0.112\nsamples = 168\nvalue = [10, 158]"] ;
258 -> 259 ;
260 [label="X[117] <= -0.803\ngini = 0.082\nsamples = 163\nvalue = [7, 156]"] ;
259 -> 260 ;
261 [label="gini = 0.444\nsamples = 3\nvalue = [2, 1]"] ;
260 -> 261 ;
262 [label="gini = 0.061\nsamples = 160\nvalue = [5, 155]"] ;
260 -> 262 ;
263 [label="X[69] <= 0.275\ngini = 0.48\nsamples = 5\nvalue = [3, 2]"] ;
259 -> 263 ;
264 [label="gini = 0.0\nsamples = 2\nvalue = [0, 2]"] ;
263 -> 264 ;
265 [label="gini = 0.0\nsamples = 3\nvalue = [3, 0]"] ;
263 -> 265 ;
266 [label="X[65] <= 0.416\ngini = 0.386\nsamples = 69\nvalue = [18, 51]"] ;
258 -> 266 ;
267 [label="X[97] <= -0.076\ngini = 0.324\nsamples = 64\nvalue = [13, 51]"] ;
266 -> 267 ;
268 [label="gini = 0.496\nsamples = 22\nvalue = [10, 12]"] ;
267 -> 268 ;
269 [label="gini = 0.133\nsamples = 42\nvalue = [3, 39]"] ;
267 -> 269 ;
270 [label="gini = 0.0\nsamples = 5\nvalue = [5, 0]"] ;
266 -> 270 ;
271 [label="gini = 0.0\nsamples = 4\nvalue = [4, 0]"] ;
257 -> 271 ;
272 [label="X[77] <= 1.711\ngini = 0.496\nsamples = 46\nvalue = [25, 21]"] ;
256 -> 272 ;
273 [label="X[49] <= 2.086\ngini = 0.393\nsamples = 26\nvalue = [7, 19]"] ;
272 -> 273 ;
274 [label="X[91] <= 1.266\ngini = 0.498\nsamples = 15\nvalue = [7, 8]"] ;
273 -> 274 ;
275 [label="gini = 0.0\nsamples = 8\nvalue = [0, 8]"] ;
274 -> 275 ;
276 [label="gini = 0.0\nsamples = 7\nvalue = [7, 0]"] ;
274 -> 276 ;
277 [label="gini = 0.0\nsamples = 11\nvalue = [0, 11]"] ;
273 -> 277 ;
278 [label="X[72] <= -0.175\ngini = 0.18\nsamples = 20\nvalue = [18, 2]"] ;
272 -> 278 ;
279 [label="X[4] <= -1.051\ngini = 0.1\nsamples = 19\nvalue = [18, 1]"] ;
278 -> 279 ;
280 [label="gini = 0.0\nsamples = 1\nvalue = [0, 1]"] ;
279 -> 280 ;
281 [label="gini = 0.0\nsamples = 18\nvalue = [18, 0]"] ;
279 -> 281 ;
282 [label="gini = 0.0\nsamples = 1\nvalue = [0, 1]"] ;
278 -> 282 ;
}